<?xml version="1.0"?>
<opencv_storage>
<stage1>
  <maxWeakCount>12</maxWeakCount>
  <stageThreshold>-2.4178278446197510e+00</stageThreshold>
  <weakClassifiers>
    <_>
      <internalNodes>
        0 -1 1010617 -1.0748690925538540e-02</internalNodes>
      <leafValues>
        1.5592971444129944e-01 -8.4016704559326172e-01</leafValues></_>
    <_>
      <internalNodes>
        0 -1 1941444 -8.9504644274711609e-03</internalNodes>
      <leafValues>
        4.8278024792671204e-01 -5.1639080047607422e-01</leafValues></_>
    <_>
      <internalNodes>
        0 -1 265922 1.5767596662044525e-02</internalNodes>
      <leafValues>
        -4.4344758987426758e-01 4.6137988567352295e-01</leafValues></_>
    <_>
      <internalNodes>
        0 -1 1284511 2.3109107278287411e-03</internalNodes>
      <leafValues>
        -3.2214531302452087e-01 6.0913050174713135e-01</leafValues></_>
    <_>
      <internalNodes>
        0 -1 1283599 -2.4210875562857836e-04</internalNodes>
      <leafValues>
        2.6821607351303101e-01 -6.9437515735626221e-01</leafValues></_>
    <_>
      <internalNodes>
        0 -1 1022239 2.8486741939559579e-04</internalNodes>
      <leafValues>
        -5.6503307819366455e-01 1.9573482871055603e-01</leafValues></_>
    <_>
      <internalNodes>
        0 -1 1254305 3.4286128357052803e-03</internalNodes>
      <leafValues>
        -2.4967302381992340e-01 4.0411818027496338e-01</leafValues></_>
    <_>
      <internalNodes>
        0 -1 1438864 -1.2126484885811806e-02</internalNodes>
      <leafValues>
        -5.4679989814758301e-01 1.8072947859764099e-01</leafValues></_>
    <_>
      <internalNodes>
        0 -1 663662 -2.0786307752132416e-02</internalNodes>
      <leafValues>
        5.0512534379959106e-01 -2.1384233236312866e-01</leafValues></_>
    <_>
      <internalNodes>
        0 -1 1518950 3.8644853048026562e-03</internalNodes>
      <leafValues>
        -2.8920751810073853e-01 3.7988135218620300e-01</leafValues></_>
    <_>
      <internalNodes>
        0 -1 2039831 1.4175593387335539e-03</internalNodes>
      <leafValues>
        -1.6895951330661774e-01 5.6685203313827515e-01</leafValues></_>
    <_>
      <internalNodes>
        0 -1 1698626 5.6327477796003222e-04</internalNodes>
      <leafValues>
        -1.6273471713066101e-01 5.1571130752563477e-01</leafValues></_></weakClassifiers></stage1>
</opencv_storage>
