<?xml version="1.0"?>
<opencv_storage>
<stage16>
  <maxWeakCount>63</maxWeakCount>
  <stageThreshold>-1.8283549547195435e+00</stageThreshold>
  <weakClassifiers>
    <_>
      <internalNodes>
        0 -1 179008 4.9888588488101959e-02</internalNodes>
      <leafValues>
        -6.2751394510269165e-01 -1.3778205215930939e-01</leafValues></_>
    <_>
      <internalNodes>
        0 -1 1204169 -1.4790102839469910e-02</internalNodes>
      <leafValues>
        2.3342315852642059e-01 -2.7685254812240601e-01</leafValues></_>
    <_>
      <internalNodes>
        0 -1 1074869 -6.7656543105840683e-03</internalNodes>
      <leafValues>
        2.2379179298877716e-01 -1.9638592004776001e-01</leafValues></_>
    <_>
      <internalNodes>
        0 -1 1346294 1.7783346120268106e-03</internalNodes>
      <leafValues>
        -1.4364258944988251e-01 2.5846055150032043e-01</leafValues></_>
    <_>
      <internalNodes>
        0 -1 664505 -2.0940052345395088e-03</internalNodes>
      <leafValues>
        3.3268964290618896e-01 -1.1067960411310196e-01</leafValues></_>
    <_>
      <internalNodes>
        0 -1 1503864 9.0976491570472717e-02</internalNodes>
      <leafValues>
        -1.0980790108442307e-01 3.6924386024475098e-01</leafValues></_>
    <_>
      <internalNodes>
        0 -1 1658217 7.6561619061976671e-04</internalNodes>
      <leafValues>
        -6.5865710377693176e-02 3.6723518371582031e-01</leafValues></_>
    <_>
      <internalNodes>
        0 -1 1345136 7.7448500087484717e-04</internalNodes>
      <leafValues>
        9.8364986479282379e-02 -3.0314999818801880e-01</leafValues></_>
    <_>
      <internalNodes>
        0 -1 1153444 -1.0866676457226276e-02</internalNodes>
      <leafValues>
        -4.2873266339302063e-01 9.5310084521770477e-02</leafValues></_>
    <_>
      <internalNodes>
        0 -1 1659913 6.0071278130635619e-04</internalNodes>
      <leafValues>
        -1.5665963292121887e-01 2.6139658689498901e-01</leafValues></_>
    <_>
      <internalNodes>
        0 -1 1343624 -1.2090804520994425e-03</internalNodes>
      <leafValues>
        -4.4901204109191895e-01 9.8195657134056091e-02</leafValues></_>
    <_>
      <internalNodes>
        0 -1 1148813 6.0984520241618156e-03</internalNodes>
      <leafValues>
        -1.5577694773674011e-01 2.6979863643646240e-01</leafValues></_>
    <_>
      <internalNodes>
        0 -1 1488694 1.9611231982707977e-02</internalNodes>
      <leafValues>
        -1.0257378965616226e-01 3.5477960109710693e-01</leafValues></_>
    <_>
      <internalNodes>
        0 -1 1949254 2.7216063812375069e-02</internalNodes>
      <leafValues>
        -9.9591732025146484e-02 3.2518345117568970e-01</leafValues></_>
    <_>
      <internalNodes>
        0 -1 865206 4.6791806817054749e-02</internalNodes>
      <leafValues>
        7.2353862226009369e-02 -4.0912714600563049e-01</leafValues></_>
    <_>
      <internalNodes>
        0 -1 132091 -7.8946575522422791e-03</internalNodes>
      <leafValues>
        -5.3396826982498169e-01 5.9968866407871246e-02</leafValues></_>
    <_>
      <internalNodes>
        0 -1 1589801 4.7842925414443016e-03</internalNodes>
      <leafValues>
        5.2644748240709305e-02 -5.5396497249603271e-01</leafValues></_>
    <_>
      <internalNodes>
        0 -1 1693125 -4.3807854126498569e-06</internalNodes>
      <leafValues>
        1.1546614021062851e-01 -2.3212312161922455e-01</leafValues></_>
    <_>
      <internalNodes>
        0 -1 1065040 -2.3053262382745743e-02</internalNodes>
      <leafValues>
        -5.4342490434646606e-01 5.2330039441585541e-02</leafValues></_>
    <_>
      <internalNodes>
        0 -1 1490298 3.2207677140831947e-03</internalNodes>
      <leafValues>
        4.3906208127737045e-02 -5.7566213607788086e-01</leafValues></_>
    <_>
      <internalNodes>
        0 -1 1236946 -2.1811117767356336e-04</internalNodes>
      <leafValues>
        3.5393270850181580e-01 -7.9336099326610565e-02</leafValues></_>
    <_>
      <internalNodes>
        0 -1 552818 2.2566080093383789e-02</internalNodes>
      <leafValues>
        -6.6456638276576996e-02 4.2994385957717896e-01</leafValues></_>
    <_>
      <internalNodes>
        0 -1 109904 5.4433373734354973e-03</internalNodes>
      <leafValues>
        6.2173698097467422e-02 -4.7875156998634338e-01</leafValues></_>
    <_>
      <internalNodes>
        0 -1 1073529 1.0098114609718323e-02</internalNodes>
      <leafValues>
        -1.1866661906242371e-01 2.4092857539653778e-01</leafValues></_>
    <_>
      <internalNodes>
        0 -1 1081029 -4.5538283884525299e-03</internalNodes>
      <leafValues>
        3.1185162067413330e-01 -8.9863121509552002e-02</leafValues></_>
    <_>
      <internalNodes>
        0 -1 1324061 4.5948318438604474e-04</internalNodes>
      <leafValues>
        1.4283655583858490e-01 -2.0720854401588440e-01</leafValues></_>
    <_>
      <internalNodes>
        0 -1 1223100 2.2373762913048267e-03</internalNodes>
      <leafValues>
        4.7950979322195053e-02 -5.7718688249588013e-01</leafValues></_>
    <_>
      <internalNodes>
        0 -1 1161753 -5.9355353005230427e-04</internalNodes>
      <leafValues>
        2.6588293910026550e-01 -1.1394679546356201e-01</leafValues></_>
    <_>
      <internalNodes>
        0 -1 458598 -9.7313668447895907e-06</internalNodes>
      <leafValues>
        1.4546141028404236e-01 -1.9282884895801544e-01</leafValues></_>
    <_>
      <internalNodes>
        0 -1 1320741 -7.4218874797224998e-03</internalNodes>
      <leafValues>
        1.4292685687541962e-01 -1.9651013612747192e-01</leafValues></_>
    <_>
      <internalNodes>
        0 -1 2042406 -1.1229063966311514e-04</internalNodes>
      <leafValues>
        -3.4191438555717468e-01 8.9175850152969360e-02</leafValues></_>
    <_>
      <internalNodes>
        0 -1 877970 1.6481615602970123e-03</internalNodes>
      <leafValues>
        -7.6956540346145630e-02 3.7791872024536133e-01</leafValues></_>
    <_>
      <internalNodes>
        0 -1 1160407 -4.1181715205311775e-03</internalNodes>
      <leafValues>
        -5.2556926012039185e-01 5.8301456272602081e-02</leafValues></_>
    <_>
      <internalNodes>
        0 -1 73370 -1.4887247234582901e-03</internalNodes>
      <leafValues>
        5.4476046562194824e-01 -5.4990649223327637e-02</leafValues></_>
    <_>
      <internalNodes>
        0 -1 1373021 1.2478736462071538e-03</internalNodes>
      <leafValues>
        6.2647670507431030e-02 -4.8587182164192200e-01</leafValues></_>
    <_>
      <internalNodes>
        0 -1 1960284 4.8950943164527416e-04</internalNodes>
      <leafValues>
        -1.0218711197376251e-01 2.7362462878227234e-01</leafValues></_>
    <_>
      <internalNodes>
        0 -1 2000015 -1.0307181626558304e-02</internalNodes>
      <leafValues>
        2.5873881578445435e-01 -1.2242537736892700e-01</leafValues></_>
    <_>
      <internalNodes>
        0 -1 1035741 -3.9016459137201309e-02</internalNodes>
      <leafValues>
        3.7666428089141846e-01 -7.7063344419002533e-02</leafValues></_>
    <_>
      <internalNodes>
        0 -1 1807125 1.5197891741991043e-02</internalNodes>
      <leafValues>
        -6.3974529504776001e-02 4.2335042357444763e-01</leafValues></_>
    <_>
      <internalNodes>
        0 -1 1633214 -3.0699779745191336e-04</internalNodes>
      <leafValues>
        -2.0704300701618195e-01 1.4521384239196777e-01</leafValues></_>
    <_>
      <internalNodes>
        0 -1 608153 -7.8828039113432169e-04</internalNodes>
      <leafValues>
        -4.5343017578125000e-01 5.6983731687068939e-02</leafValues></_>
    <_>
      <internalNodes>
        0 -1 1186198 7.9006393207237124e-05</internalNodes>
      <leafValues>
        -2.5261557102203369e-01 1.0295808315277100e-01</leafValues></_>
    <_>
      <internalNodes>
        0 -1 848173 -2.5617863982915878e-02</internalNodes>
      <leafValues>
        3.6329287290573120e-01 -7.6201699674129486e-02</leafValues></_>
    <_>
      <internalNodes>
        0 -1 38446 -6.1647435650229454e-03</internalNodes>
      <leafValues>
        4.0315943956375122e-01 -6.2988072633743286e-02</leafValues></_>
    <_>
      <internalNodes>
        0 -1 51891 -1.0189620777964592e-02</internalNodes>
      <leafValues>
        2.4947412312030792e-01 -1.1101414263248444e-01</leafValues></_>
    <_>
      <internalNodes>
        0 -1 1179944 2.6933944318443537e-03</internalNodes>
      <leafValues>
        5.0921432673931122e-02 -5.3854215145111084e-01</leafValues></_>
    <_>
      <internalNodes>
        0 -1 1469462 6.2484544469043612e-04</internalNodes>
      <leafValues>
        -9.6439026296138763e-02 3.1827205419540405e-01</leafValues></_>
    <_>
      <internalNodes>
        0 -1 535883 -4.3216354242758825e-05</internalNodes>
      <leafValues>
        1.0428624600172043e-01 -2.5690460205078125e-01</leafValues></_>
    <_>
      <internalNodes>
        0 -1 1413404 -9.5828634221106768e-04</internalNodes>
      <leafValues>
        2.7888831496238708e-01 -1.1153805255889893e-01</leafValues></_>
    <_>
      <internalNodes>
        0 -1 451850 3.6346793174743652e-02</internalNodes>
      <leafValues>
        4.3302789330482483e-02 -6.4962321519851685e-01</leafValues></_>
    <_>
      <internalNodes>
        0 -1 1936311 -3.3634551800787449e-03</internalNodes>
      <leafValues>
        -6.2015724182128906e-01 3.7196043878793716e-02</leafValues></_>
    <_>
      <internalNodes>
        0 -1 589984 -3.0811157077550888e-02</internalNodes>
      <leafValues>
        5.1909828186035156e-01 -5.8278083801269531e-02</leafValues></_>
    <_>
      <internalNodes>
        0 -1 114374 -4.1201775893568993e-03</internalNodes>
      <leafValues>
        1.2498792260885239e-01 -2.3681448400020599e-01</leafValues></_>
    <_>
      <internalNodes>
        0 -1 1174656 9.3448790721595287e-04</internalNodes>
      <leafValues>
        -9.5659509301185608e-02 2.8845256567001343e-01</leafValues></_>
    <_>
      <internalNodes>
        0 -1 824896 -3.0329352011904120e-04</internalNodes>
      <leafValues>
        -2.9491862654685974e-01 9.3632243573665619e-02</leafValues></_>
    <_>
      <internalNodes>
        0 -1 1656764 -2.0276008173823357e-02</internalNodes>
      <leafValues>
        5.1150918006896973e-01 -5.4220955818891525e-02</leafValues></_>
    <_>
      <internalNodes>
        0 -1 1024282 1.4462168328464031e-02</internalNodes>
      <leafValues>
        5.0446901470422745e-02 -6.0837006568908691e-01</leafValues></_>
    <_>
      <internalNodes>
        0 -1 1340480 9.2033942928537726e-04</internalNodes>
      <leafValues>
        -2.4071359634399414e-01 1.1233461648225784e-01</leafValues></_>
    <_>
      <internalNodes>
        0 -1 1094432 -3.0404038727283478e-02</internalNodes>
      <leafValues>
        -5.6628614664077759e-01 4.3802879750728607e-02</leafValues></_>
    <_>
      <internalNodes>
        0 -1 1896935 -1.0484820450074039e-05</internalNodes>
      <leafValues>
        1.0337800532579422e-01 -2.5232669711112976e-01</leafValues></_>
    <_>
      <internalNodes>
        0 -1 1552697 9.5324413850903511e-03</internalNodes>
      <leafValues>
        -6.0823816806077957e-02 4.4468855857849121e-01</leafValues></_>
    <_>
      <internalNodes>
        0 -1 2038776 -2.4513397365808487e-03</internalNodes>
      <leafValues>
        3.7358260154724121e-01 -6.8967953324317932e-02</leafValues></_>
    <_>
      <internalNodes>
        0 -1 2038582 1.4003753894940019e-03</internalNodes>
      <leafValues>
        -1.2500403821468353e-01 2.5601205229759216e-01</leafValues></_></weakClassifiers></stage16>
</opencv_storage>
