<?xml version="1.0"?>
<opencv_storage>
<stage15>
  <maxWeakCount>57</maxWeakCount>
  <stageThreshold>-1.8078974485397339e+00</stageThreshold>
  <weakClassifiers>
    <_>
      <internalNodes>
        0 -1 1264959 -1.3676268048584461e-02</internalNodes>
      <leafValues>
        -2.2524407505989075e-01 -6.5354639291763306e-01</leafValues></_>
    <_>
      <internalNodes>
        0 -1 1139907 -7.4732387438416481e-03</internalNodes>
      <leafValues>
        2.3196925222873688e-01 -2.5889560580253601e-01</leafValues></_>
    <_>
      <internalNodes>
        0 -1 1333067 -3.2707946375012398e-03</internalNodes>
      <leafValues>
        4.1710892319679260e-01 -1.3731208443641663e-01</leafValues></_>
    <_>
      <internalNodes>
        0 -1 1705089 1.8795948475599289e-02</internalNodes>
      <leafValues>
        -1.5702691674232483e-01 2.5652459263801575e-01</leafValues></_>
    <_>
      <internalNodes>
        0 -1 1608704 1.7559040337800980e-02</internalNodes>
      <leafValues>
        -1.2225654721260071e-01 3.1465616822242737e-01</leafValues></_>
    <_>
      <internalNodes>
        0 -1 1600358 1.0189573280513287e-02</internalNodes>
      <leafValues>
        -1.0151767730712891e-01 3.3178505301475525e-01</leafValues></_>
    <_>
      <internalNodes>
        0 -1 361 -1.3317296281456947e-02</internalNodes>
      <leafValues>
        3.0672731995582581e-01 -9.1657467186450958e-02</leafValues></_>
    <_>
      <internalNodes>
        0 -1 1663509 3.9063706062734127e-03</internalNodes>
      <leafValues>
        5.0268914550542831e-02 -6.8036317825317383e-01</leafValues></_>
    <_>
      <internalNodes>
        0 -1 1594517 1.6823584213852882e-02</internalNodes>
      <leafValues>
        5.0412788987159729e-02 -5.2549952268600464e-01</leafValues></_>
    <_>
      <internalNodes>
        0 -1 1342347 3.3660265617072582e-03</internalNodes>
      <leafValues>
        6.6085502505302429e-02 -4.3497800827026367e-01</leafValues></_>
    <_>
      <internalNodes>
        0 -1 1206670 2.7868980541825294e-03</internalNodes>
      <leafValues>
        -1.1815761774778366e-01 2.9577824473381042e-01</leafValues></_>
    <_>
      <internalNodes>
        0 -1 1265664 -3.8398616015911102e-04</internalNodes>
      <leafValues>
        -4.5488026738166809e-01 9.5839120447635651e-02</leafValues></_>
    <_>
      <internalNodes>
        0 -1 1345132 7.1220227982848883e-04</internalNodes>
      <leafValues>
        6.9664180278778076e-02 -3.5186374187469482e-01</leafValues></_>
    <_>
      <internalNodes>
        0 -1 994945 -1.0083383880555630e-02</internalNodes>
      <leafValues>
        -6.4259016513824463e-01 5.0044551491737366e-02</leafValues></_>
    <_>
      <internalNodes>
        0 -1 1271391 -2.2157602943480015e-03</internalNodes>
      <leafValues>
        3.5043603181838989e-01 -9.7081713378429413e-02</leafValues></_>
    <_>
      <internalNodes>
        0 -1 1396161 -2.6464392431080341e-03</internalNodes>
      <leafValues>
        1.7642685770988464e-01 -1.7024916410446167e-01</leafValues></_>
    <_>
      <internalNodes>
        0 -1 1704728 5.8194575831294060e-03</internalNodes>
      <leafValues>
        3.9672456681728363e-02 -7.1785217523574829e-01</leafValues></_>
    <_>
      <internalNodes>
        0 -1 1927694 -2.8882864862680435e-02</internalNodes>
      <leafValues>
        2.6290455460548401e-01 -1.1915227770805359e-01</leafValues></_>
    <_>
      <internalNodes>
        0 -1 126215 5.4830843582749367e-03</internalNodes>
      <leafValues>
        -7.9099893569946289e-02 3.3956116437911987e-01</leafValues></_>
    <_>
      <internalNodes>
        0 -1 1410204 8.1805512309074402e-04</internalNodes>
      <leafValues>
        -8.6659267544746399e-02 3.1165841221809387e-01</leafValues></_>
    <_>
      <internalNodes>
        0 -1 1468248 -2.6217490434646606e-02</internalNodes>
      <leafValues>
        -5.9922915697097778e-01 4.1652772575616837e-02</leafValues></_>
    <_>
      <internalNodes>
        0 -1 8 1.4779171033296734e-04</internalNodes>
      <leafValues>
        9.3914248049259186e-02 -2.7888149023056030e-01</leafValues></_>
    <_>
      <internalNodes>
        0 -1 159206 -1.4057625958230346e-04</internalNodes>
      <leafValues>
        -2.8125441074371338e-01 9.6991695463657379e-02</leafValues></_>
    <_>
      <internalNodes>
        0 -1 1543424 7.2242622263729572e-03</internalNodes>
      <leafValues>
        7.2752021253108978e-02 -3.6808016896247864e-01</leafValues></_>
    <_>
      <internalNodes>
        0 -1 2004113 -1.5573248267173767e-02</internalNodes>
      <leafValues>
        4.3548238277435303e-01 -6.7196719348430634e-02</leafValues></_>
    <_>
      <internalNodes>
        0 -1 2018075 -3.6279554478824139e-03</internalNodes>
      <leafValues>
        3.3643344044685364e-01 -7.7011331915855408e-02</leafValues></_>
    <_>
      <internalNodes>
        0 -1 1949422 6.0731875710189342e-03</internalNodes>
      <leafValues>
        4.4263474643230438e-02 -5.7054841518402100e-01</leafValues></_>
    <_>
      <internalNodes>
        0 -1 440039 4.8425197601318359e-02</internalNodes>
      <leafValues>
        -1.1043947190046310e-01 2.4537195265293121e-01</leafValues></_>
    <_>
      <internalNodes>
        0 -1 196040 1.1353063583374023e-01</internalNodes>
      <leafValues>
        4.0440402925014496e-02 -6.8659931421279907e-01</leafValues></_>
    <_>
      <internalNodes>
        0 -1 1884098 2.4598993360996246e-02</internalNodes>
      <leafValues>
        2.8711844235658646e-02 -7.4077922105789185e-01</leafValues></_>
    <_>
      <internalNodes>
        0 -1 1913736 8.1957960501313210e-03</internalNodes>
      <leafValues>
        -7.0745207369327545e-02 3.8647022843360901e-01</leafValues></_>
    <_>
      <internalNodes>
        0 -1 1011509 3.5442064981907606e-03</internalNodes>
      <leafValues>
        5.2494820207357407e-02 -5.2906477451324463e-01</leafValues></_>
    <_>
      <internalNodes>
        0 -1 879947 2.1068807109259069e-04</internalNodes>
      <leafValues>
        -1.2663222849369049e-01 2.0243477821350098e-01</leafValues></_>
    <_>
      <internalNodes>
        0 -1 879947 -1.5118140727281570e-03</internalNodes>
      <leafValues>
        4.3777257204055786e-01 -7.5316369533538818e-02</leafValues></_>
    <_>
      <internalNodes>
        0 -1 1685085 -3.1117280013859272e-03</internalNodes>
      <leafValues>
        -6.0288494825363159e-01 4.4093843549489975e-02</leafValues></_>
    <_>
      <internalNodes>
        0 -1 1135976 6.9694677367806435e-03</internalNodes>
      <leafValues>
        2.8672525659203529e-02 -7.2132974863052368e-01</leafValues></_>
    <_>
      <internalNodes>
        0 -1 1315546 -2.4185719667002559e-04</internalNodes>
      <leafValues>
        -3.0886149406433105e-01 7.3768705129623413e-02</leafValues></_>
    <_>
      <internalNodes>
        0 -1 987510 1.2580374255776405e-02</internalNodes>
      <leafValues>
        -1.6591243445873260e-01 1.4282163977622986e-01</leafValues></_>
    <_>
      <internalNodes>
        0 -1 1245816 -1.0804596357047558e-02</internalNodes>
      <leafValues>
        3.6646831035614014e-01 -9.3749113380908966e-02</leafValues></_>
    <_>
      <internalNodes>
        0 -1 44841 -9.0386979281902313e-03</internalNodes>
      <leafValues>
        -4.7580304741859436e-01 5.3219839930534363e-02</leafValues></_>
    <_>
      <internalNodes>
        0 -1 1472721 3.1424727058038116e-04</internalNodes>
      <leafValues>
        -8.1365488469600677e-02 3.0743172764778137e-01</leafValues></_>
    <_>
      <internalNodes>
        0 -1 1942030 -2.6214876561425626e-04</internalNodes>
      <leafValues>
        -4.5306929945945740e-01 5.4504904896020889e-02</leafValues></_>
    <_>
      <internalNodes>
        0 -1 1780238 -1.6383710317313671e-03</internalNodes>
      <leafValues>
        2.8483343124389648e-01 -8.8537834584712982e-02</leafValues></_>
    <_>
      <internalNodes>
        0 -1 1323869 6.7516368289943784e-05</internalNodes>
      <leafValues>
        -1.9513022899627686e-01 1.3470128178596497e-01</leafValues></_>
    <_>
      <internalNodes>
        0 -1 1012774 8.0286145210266113e-02</internalNodes>
      <leafValues>
        4.8054549843072891e-02 -5.1102066040039062e-01</leafValues></_>
    <_>
      <internalNodes>
        0 -1 1735018 4.3121166527271271e-04</internalNodes>
      <leafValues>
        -2.1270047128200531e-01 1.1932986229658127e-01</leafValues></_>
    <_>
      <internalNodes>
        0 -1 1785477 4.8058964312076569e-02</internalNodes>
      <leafValues>
        -3.8529913872480392e-02 7.4716651439666748e-01</leafValues></_>
    <_>
      <internalNodes>
        0 -1 1923891 1.0029098484665155e-03</internalNodes>
      <leafValues>
        -1.6452182829380035e-01 1.6945229470729828e-01</leafValues></_>
    <_>
      <internalNodes>
        0 -1 1113841 1.4975584344938397e-03</internalNodes>
      <leafValues>
        -1.7204399406909943e-01 1.3993753492832184e-01</leafValues></_>
    <_>
      <internalNodes>
        0 -1 1803061 -5.6773968040943146e-02</internalNodes>
      <leafValues>
        4.5322862267494202e-01 -5.8075100183486938e-02</leafValues></_>
    <_>
      <internalNodes>
        0 -1 2012680 9.3305970949586481e-05</internalNodes>
      <leafValues>
        9.4941437244415283e-02 -2.8218132257461548e-01</leafValues></_>
    <_>
      <internalNodes>
        0 -1 46565 5.4301240015774965e-04</internalNodes>
      <leafValues>
        -6.1417330056428909e-02 4.1561135649681091e-01</leafValues></_>
    <_>
      <internalNodes>
        0 -1 644510 3.1244372949004173e-03</internalNodes>
      <leafValues>
        3.8864437490701675e-02 -6.7934602499008179e-01</leafValues></_>
    <_>
      <internalNodes>
        0 -1 1410926 1.4390639262273908e-04</internalNodes>
      <leafValues>
        -1.1317175626754761e-01 2.2328527271747589e-01</leafValues></_>
    <_>
      <internalNodes>
        0 -1 1377245 -3.7089113146066666e-02</internalNodes>
      <leafValues>
        -6.5570950508117676e-01 3.8373749703168869e-02</leafValues></_>
    <_>
      <internalNodes>
        0 -1 1456572 2.0022138487547636e-03</internalNodes>
      <leafValues>
        3.0467577278614044e-02 -6.3693773746490479e-01</leafValues></_>
    <_>
      <internalNodes>
        0 -1 1461044 -6.5070758864749223e-05</internalNodes>
      <leafValues>
        1.7495965957641602e-01 -1.4063885807991028e-01</leafValues></_></weakClassifiers></stage15>
</opencv_storage>
